digraph Tree {
node [shape=box, style="filled, rounded", color="black", fontname="helvetica"] ;
edge [fontname="helvetica"] ;
0 [label="HOUSE <= 601744.5\ngini = 0.5\nsamples = 14000\nvalue = [6917.0, 7083.0]\nclass = STAY", fillcolor="#fafdfe"] ;
1 [label="OVERAGE <= 98.5\ngini = 0.49\nsamples = 9279\nvalue = [5423, 3856]\nclass = LEAVE", fillcolor="#f7dbc6"] ;
0 -> 1 [labeldistance=2.5, labelangle=45, headlabel="True"] ;
2 [label="LEFTOVER <= 24.5\ngini = 0.5\nsamples = 6164\nvalue = [2944.0, 3220.0]\nclass = STAY", fillcolor="#eef7fd"] ;
1 -> 2 ;
3 [label="LEFTOVER <= 2.5\ngini = 0.49\nsamples = 4129\nvalue = [1711, 2418]\nclass = STAY", fillcolor="#c5e2f7"] ;
2 -> 3 ;
4 [label="(...)", fillcolor="#C0C0C0"] ;
3 -> 4 ;
1139 [label="(...)", fillcolor="#C0C0C0"] ;
3 -> 1139 ;
1938 [label="HANDSET_PRICE <= 151.5\ngini = 0.48\nsamples = 2035\nvalue = [1233, 802]\nclass = LEAVE", fillcolor="#f6d3ba"] ;
2 -> 1938 ;
1939 [label="(...)", fillcolor="#C0C0C0"] ;
1938 -> 1939 ;
2002 [label="(...)", fillcolor="#C0C0C0"] ;
1938 -> 2002 ;
2987 [label="HANDSET_PRICE <= 897.5\ngini = 0.32\nsamples = 3115\nvalue = [2479, 636]\nclass = LEAVE", fillcolor="#eca16c"] ;
1 -> 2987 ;
2988 [label="HOUSE <= 266233.5\ngini = 0.32\nsamples = 3111\nvalue = [2478, 633]\nclass = LEAVE", fillcolor="#eca16c"] ;
2987 -> 2988 ;
2989 [label="(...)", fillcolor="#C0C0C0"] ;
2988 -> 2989 ;
3412 [label="(...)", fillcolor="#C0C0C0"] ;
2988 -> 3412 ;
4167 [label="REPORTED_SATISFACTION_unsat <= 0.5\ngini = 0.38\nsamples = 4\nvalue = [1, 3]\nclass = STAY", fillcolor="#7bbeee"] ;
2987 -> 4167 ;
4168 [label="(...)", fillcolor="#C0C0C0"] ;
4167 -> 4168 ;
4169 [label="(...)", fillcolor="#C0C0C0"] ;
4167 -> 4169 ;
4170 [label="INCOME <= 99826.0\ngini = 0.43\nsamples = 4721\nvalue = [1494, 3227]\nclass = STAY", fillcolor="#95caf1"] ;
0 -> 4170 [labeldistance=2.5, labelangle=-45, headlabel="False"] ;
4171 [label="HANDSET_PRICE <= 745.5\ngini = 0.3\nsamples = 3184\nvalue = [588, 2596]\nclass = STAY", fillcolor="#66b3eb"] ;
4170 -> 4171 ;
4172 [label="HANDSET_PRICE <= 736.5\ngini = 0.3\nsamples = 3138\nvalue = [586, 2552]\nclass = STAY", fillcolor="#66b4eb"] ;
4171 -> 4172 ;
4173 [label="(...)", fillcolor="#C0C0C0"] ;
4172 -> 4173 ;
5348 [label="(...)", fillcolor="#C0C0C0"] ;
4172 -> 5348 ;
5349 [label="HANDSET_PRICE <= 888.5\ngini = 0.08\nsamples = 46\nvalue = [2, 44]\nclass = STAY", fillcolor="#42a1e6"] ;
4171 -> 5349 ;
5350 [label="(...)", fillcolor="#C0C0C0"] ;
5349 -> 5350 ;
5357 [label="(...)", fillcolor="#C0C0C0"] ;
5349 -> 5357 ;
5360 [label="OVERAGE <= 91.0\ngini = 0.48\nsamples = 1537\nvalue = [906, 631]\nclass = LEAVE", fillcolor="#f7d9c3"] ;
4170 -> 5360 ;
5361 [label="LEFTOVER <= 26.5\ngini = 0.5\nsamples = 1031\nvalue = [497, 534]\nclass = STAY", fillcolor="#f1f8fd"] ;
5360 -> 5361 ;
5362 [label="(...)", fillcolor="#C0C0C0"] ;
5361 -> 5362 ;
5681 [label="(...)", fillcolor="#C0C0C0"] ;
5361 -> 5681 ;
5852 [label="INCOME <= 102995.5\ngini = 0.31\nsamples = 506\nvalue = [409, 97]\nclass = LEAVE", fillcolor="#eb9f68"] ;
5360 -> 5852 ;
5853 [label="(...)", fillcolor="#C0C0C0"] ;
5852 -> 5853 ;
5866 [label="(...)", fillcolor="#C0C0C0"] ;
5852 -> 5866 ;
}